
\data\
ngram 1=14
ngram 2=19
ngram 3=1

\1-grams:
-0.4771213	</s>
-99	<s>	-0.7727562
-1.431363	<unk>
-1.130334	a	-0.4259687
-1.431364	asf	-0.2846396
-1.431364	bla	-0.1249387
-1.431364	kkw	-0.1249387
-1.431364	lsdf	-0.2846396
-1.431364	test	-0.1249387
-1.431364	test!	-0.1249387
-1.431364	wi	-0.2846396
-1.130334	x	-0.1597008
-0.7323937	y	-0.5772364
-1.431364	z	-0.2846396

\2-grams:
-0.69897	<s> a
-1	<s> lsdf
-1	<s> test
-1	<s> x
-0.39794	<s> y	-0.2218488
-0.4771213	a test!
-0.4771213	a x
-0.30103	asf kkw
-0.30103	bla </s>
-0.30103	kkw </s>
-0.30103	lsdf wi
-0.30103	test </s>
-0.30103	test! </s>
-0.30103	wi asf
-0.4771213	x </s>
-0.4771213	x y
-0.1760913	y </s>
-0.7781513	y z
-0.30103	z bla

\3-grams:
-0.09691001	<s> y </s>

\end\
